{"HiddenLayer":[0.0036871865657932116,0.9976714912370538,0.005299809962156672,0.9973861193432407,1],"InputLayer":[5.1,3.5,1.4,0.3,1],"OutputLayer":[0.010045681873318604],"WeightHidden":[[-1.3407582726208886,-0.9372334051566901,2.407746709915809,1.7491538756789364,0.6233525534371613],[1.1657822437101122,-0.1394396640076397,0.591017614027672,0.6382659612574556,-0.41615443307287503],[-0.2755663570947594,-1.977615263464178,2.4563560038331755,-0.020749382198964588,-0.3404502936920781],[0.8614325257048444,0.16310244516726355,0.07138623977842096,0.6486340664319169,0.6856105637851886],[-0.2326738094376397,-0.47100632953243693,0.139003574994917,0.23871927420058348,0.8577077524003134]],"WeightOutput":[[7.719145180305257,-1.764417319136541,6.350136620689748,-1.3128777777828349,-1.582961866508168]],"ErrOutput":[0.010045681873318604],"ErrHidden":[0.0007711577214001862,-0.00017626592886468652,0.0006343910922099909,-0.0001311562459290452,0],"LastChangeHidden":[[0.0000052481426290282885,0.000003538455112876617,0.0000015345243035531198,3.7194864043077855e-7,0.0000010293113444167185],[-5.713225071464279e-7,-3.901536954237749e-7,-1.5972854918811455e-7,-3.553745865822289e-8,-1.1202413279978847e-7],[0.000005951641724953263,0.000004019262325380021,0.0000017301483539984546,4.150985396688026e-7,0.0000011672746353737489],[-4.868346352558552e-7,-3.3211196114919574e-7,-1.3661771008923184e-7,-3.062584184693101e-8,-9.545921072517482e-8],[0,0,0,0,0]],"LastChangeOutput":[[1.1241436276939018e-7,0.00002817110049057579,1.6363063197809182e-7,0.000028161836913832283,0.00002823473690024404]],"Regression":false,"Rate1":0.25,"Rate2":0.1}
e,"Rate1":0.25,"Rate2":0.1}
